<?xml version="1.0"?>
<opencv_storage>
<cascade>
  <stageType>BOOST</stageType>
  <featureType>HAAR</featureType>
  <height>24</height>
  <width>24</width>
  <stageParams>
    <boostType>GAB</boostType>
    <minHitRate>9.9900001287460327e-01</minHitRate>
    <maxFalseAlarm>1.0000000149011612e-01</maxFalseAlarm>
    <weightTrimRate>9.4999999999999996e-01</weightTrimRate>
    <maxDepth>1</maxDepth>
    <maxWeakCount>100</maxWeakCount></stageParams>
  <featureParams>
    <maxCatCount>0</maxCatCount>
    <featSize>1</featSize>
    <mode>BASIC</mode></featureParams>
  <stageNum>8</stageNum>
  <stages>
    <!-- stage 0 -->
    <_>
      <maxWeakCount>4</maxWeakCount>
      <stageThreshold>-4.0661240927875042e-03</stageThreshold>
      <weakClassifiers>
        <_>
          <internalNodes>
            0 -1 4 -4.1964747942984104e-03</internalNodes>
          <leafValues>
            8.6813187599182129e-01 -8.8764047622680664e-01</leafValues></_>
        <_>
          <internalNodes>
            0 -1 25 -1.2800054624676704e-02</internalNodes>
          <leafValues>
            -7.0792847871780396e-01 9.5927619934082031e-01</leafValues></_>
        <_>
          <internalNodes>
            0 -1 17 -1.9299671053886414e-02</internalNodes>
          <leafValues>
            -6.6981494426727295e-01 9.0020442008972168e-01</leafValues></_>
        <_>
          <internalNodes>
            0 -1 33 -1.8612001836299896e-01</internalNodes>
          <leafValues>
            -8.3712446689605713e-01 6.9129836559295654e-01</leafValues></_></weakClassifiers></_>
    <!-- stage 1 -->
    <_>
      <maxWeakCount>4</maxWeakCount>
      <stageThreshold>1.4847910031676292e-02</stageThreshold>
      <weakClassifiers>
        <_>
          <internalNodes>
            0 -1 18 4.1979989036917686e-03</internalNodes>
          <leafValues>
            -8.0645161867141724e-01 8.6206895112991333e-01</leafValues></_>
        <_>
          <internalNodes>
            0 -1 23 9.3037791550159454e-02</internalNodes>
          <leafValues>
            -6.5051954984664917e-01 8.3357203006744385e-01</leafValues></_>
        <_>
          <internalNodes>
            0 -1 41 -6.0886003077030182e-02</internalNodes>
          <leafValues>
            -9.2668926715850830e-01 5.7974946498870850e-01</leafValues></_>
        <_>
          <internalNodes>
            0 -1 19 -3.6030018236488104e-03</internalNodes>
          <leafValues>
            8.9206957817077637e-01 -5.6485044956207275e-01</leafValues></_></weakClassifiers></_>
    <!-- stage 2 -->
    <_>
      <maxWeakCount>3</maxWeakCount>
      <stageThreshold>4.0259382128715515e-01</stageThreshold>
      <weakClassifiers>
        <_>
          <internalNodes>
            0 -1 35 -1.0108640417456627e-02</internalNodes>
          <leafValues>
            7.7011495828628540e-01 -7.2043013572692871e-01</leafValues></_>
        <_>
          <internalNodes>
            0 -1 1 -8.5483223199844360e-02</internalNodes>
          <leafValues>
            -9.2178320884704590e-01 6.0222029685974121e-01</leafValues></_>
        <_>
          <internalNodes>
            0 -1 12 -9.9372640252113342e-03</internalNodes>
          <leafValues>
            5.5426210165023804e-01 -8.6643171310424805e-01</leafValues></_></weakClassifiers></_>
    <!-- stage 3 -->
    <_>
      <maxWeakCount>6</maxWeakCount>
      <stageThreshold>-7.9462036490440369e-02</stageThreshold>
      <weakClassifiers>
        <_>
          <internalNodes>
            0 -1 8 -1.8448980525135994e-02</internalNodes>
          <leafValues>
            7.8666669130325317e-01 -5.6190478801727295e-01</leafValues></_>
        <_>
          <internalNodes>
            0 -1 21 -5.2313394844532013e-03</internalNodes>
          <leafValues>
            6.6901719570159912e-01 -5.8732819557189941e-01</leafValues></_>
        <_>
          <internalNodes>
            0 -1 22 -1.5355113428086042e-03</internalNodes>
          <leafValues>
            6.0926872491836548e-01 -5.4463976621627808e-01</leafValues></_>
        <_>
          <internalNodes>
            0 -1 42 -1.0346694290637970e-01</internalNodes>
          <leafValues>
            -9.6609610319137573e-01 3.8261187076568604e-01</leafValues></_>
        <_>
          <internalNodes>
            0 -1 14 5.7727517560124397e-03</internalNodes>
          <leafValues>
            -4.7039890289306641e-01 8.9661151170730591e-01</leafValues></_>
        <_>
          <internalNodes>
            0 -1 32 -1.3706567697227001e-03</internalNodes>
          <leafValues>
            -6.3865894079208374e-01 5.4828923940658569e-01</leafValues></_></weakClassifiers></_>
    <!-- stage 4 -->
    <_>
      <maxWeakCount>7</maxWeakCount>
      <stageThreshold>-5.8607912063598633e-01</stageThreshold>
      <weakClassifiers>
        <_>
          <internalNodes>
            0 -1 7 2.6956810615956783e-03</internalNodes>
          <leafValues>
            -4.4262295961380005e-01 9.3103450536727905e-01</leafValues></_>
        <_>
          <internalNodes>
            0 -1 27 -1.7261502798646688e-03</internalNodes>
          <leafValues>
            4.4812068343162537e-01 -7.7941256761550903e-01</leafValues></_>
        <_>
          <internalNodes>
            0 -1 16 4.1034612804651260e-03</internalNodes>
          <leafValues>
            -6.2017148733139038e-01 5.3363263607025146e-01</leafValues></_>
        <_>
          <internalNodes>
            0 -1 29 7.7214965131133795e-05</internalNodes>
          <leafValues>
            2.9569643735885620e-01 -9.6135765314102173e-01</leafValues></_>
        <_>
          <internalNodes>
            0 -1 37 2.6409598649479449e-04</internalNodes>
          <leafValues>
            -4.9256542325019836e-01 7.9767578840255737e-01</leafValues></_>
        <_>
          <internalNodes>
            0 -1 28 -3.5108197480440140e-03</internalNodes>
          <leafValues>
            -7.3099690675735474e-01 5.6226503849029541e-01</leafValues></_>
        <_>
          <internalNodes>
            0 -1 15 -5.5949157103896141e-04</internalNodes>
          <leafValues>
            1. -3.3680140972137451e-01</leafValues></_></weakClassifiers></_>
    <!-- stage 5 -->
    <_>
      <maxWeakCount>7</maxWeakCount>
      <stageThreshold>-1.0161460191011429e-01</stageThreshold>
      <weakClassifiers>
        <_>
          <internalNodes>
            0 -1 3 -2.0525461062788963e-02</internalNodes>
          <leafValues>
            8.4848487377166748e-01 -4.9122807383537292e-01</leafValues></_>
        <_>
          <internalNodes>
            0 -1 6 -1.0179234668612480e-03</internalNodes>
          <leafValues>
            3.7573841214179993e-01 -7.7293592691421509e-01</leafValues></_>
        <_>
          <internalNodes>
            0 -1 26 5.3645190782845020e-03</internalNodes>
          <leafValues>
            -7.0981085300445557e-01 3.8110539317131042e-01</leafValues></_>
        <_>
          <internalNodes>
            0 -1 10 -3.0591792892664671e-04</internalNodes>
          <leafValues>
            -6.2105017900466919e-01 4.1664579510688782e-01</leafValues></_>
        <_>
          <internalNodes>
            0 -1 30 3.6310375435277820e-04</internalNodes>
          <leafValues>
            3.4946164488792419e-01 -7.9416513442993164e-01</leafValues></_>
        <_>
          <internalNodes>
            0 -1 38 6.6781602799892426e-03</internalNodes>
          <leafValues>
            -4.4194492697715759e-01 7.9393345117568970e-01</leafValues></_>
        <_>
          <internalNodes>
            0 -1 9 -4.1616236558184028e-05</internalNodes>
          <leafValues>
            -6.9937151670455933e-01 4.5728147029876709e-01</leafValues></_></weakClassifiers></_>
    <!-- stage 6 -->
    <_>
      <maxWeakCount>7</maxWeakCount>
      <stageThreshold>2.5404050946235657e-01</stageThreshold>
      <weakClassifiers>
        <_>
          <internalNodes>
            0 -1 2 -1.0711948573589325e-01</internalNodes>
          <leafValues>
            6.0975611209869385e-01 -5.1020407676696777e-01</leafValues></_>
        <_>
          <internalNodes>
            0 -1 11 6.9445474073290825e-03</internalNodes>
          <leafValues>
            -6.0699814558029175e-01 5.1933950185775757e-01</leafValues></_>
        <_>
          <internalNodes>
            0 -1 36 1.7211899394169450e-03</internalNodes>
          <leafValues>
            -3.0096036195755005e-01 1.</leafValues></_>
        <_>
          <internalNodes>
            0 -1 5 -2.8706230223178864e-02</internalNodes>
          <leafValues>
            -6.8156683444976807e-01 4.8199376463890076e-01</leafValues></_>
        <_>
          <internalNodes>
            0 -1 31 1.2935115955770016e-04</internalNodes>
          <leafValues>
            3.3038434386253357e-01 -9.0029859542846680e-01</leafValues></_>
        <_>
          <internalNodes>
            0 -1 34 -1.2101033702492714e-02</internalNodes>
          <leafValues>
            6.6399747133255005e-01 -4.7739040851593018e-01</leafValues></_>
        <_>
          <internalNodes>
            0 -1 39 7.4099123594351113e-05</internalNodes>
          <leafValues>
            4.1291394829750061e-01 -8.8690966367721558e-01</leafValues></_></weakClassifiers></_>
    <!-- stage 7 -->
    <_>
      <maxWeakCount>7</maxWeakCount>
      <stageThreshold>-5.2900278568267822e-01</stageThreshold>
      <weakClassifiers>
        <_>
          <internalNodes>
            0 -1 24 -1.4828169718384743e-02</internalNodes>
          <leafValues>
            -5.8333331346511841e-01 6.6666668653488159e-01</leafValues></_>
        <_>
          <internalNodes>
            0 -1 0 -3.8804442156106234e-03</internalNodes>
          <leafValues>
            -6.7252004146575928e-01 4.9222755432128906e-01</leafValues></_>
        <_>
          <internalNodes>
            0 -1 39 -4.8142203013412654e-05</internalNodes>
          <leafValues>
            -7.0460498332977295e-01 4.5945200324058533e-01</leafValues></_>
        <_>
          <internalNodes>
            0 -1 20 -3.5786553053185344e-04</internalNodes>
          <leafValues>
            -4.7463643550872803e-01 6.4345812797546387e-01</leafValues></_>
        <_>
          <internalNodes>
            0 -1 40 -1.4578609261661768e-03</internalNodes>
          <leafValues>
            7.8206616640090942e-01 -4.5681720972061157e-01</leafValues></_>
        <_>
          <internalNodes>
            0 -1 13 -8.8045408483594656e-04</internalNodes>
          <leafValues>
            -7.2441524267196655e-01 4.7458037734031677e-01</leafValues></_>
        <_>
          <internalNodes>
            0 -1 3 -1.3130817562341690e-02</internalNodes>
          <leafValues>
            6.4986896514892578e-01 -5.2572816610336304e-01</leafValues></_></weakClassifiers></_></stages>
  <features>
    <_>
      <rects>
        <_>
          0 0 20 2 -1.</_>
        <_>
          10 0 10 2 2.</_></rects>
      <tilted>0</tilted></_>
    <_>
      <rects>
        <_>
          0 3 10 6 -1.</_>
        <_>
          0 5 10 2 2.</_></rects>
      <tilted>0</tilted></_>
    <_>
      <rects>
        <_>
          0 7 12 12 -1.</_>
        <_>
          6 7 6 12 2.</_></rects>
      <tilted>0</tilted></_>
    <_>
      <rects>
        <_>
          0 9 6 8 -1.</_>
        <_>
          0 9 3 4 2.</_>
        <_>
          3 13 3 4 2.</_></rects>
      <tilted>0</tilted></_>
    <_>
      <rects>
        <_>
          0 21 10 1 -1.</_>
        <_>
          5 21 5 1 2.</_></rects>
      <tilted>0</tilted></_>
    <_>
      <rects>
        <_>
          1 6 23 12 -1.</_>
        <_>
          1 12 23 6 2.</_></rects>
      <tilted>0</tilted></_>
    <_>
      <rects>
        <_>
          1 17 4 5 -1.</_>
        <_>
          3 17 2 5 2.</_></rects>
      <tilted>0</tilted></_>
    <_>
      <rects>
        <_>
          1 21 6 2 -1.</_>
        <_>
          1 21 3 1 2.</_>
        <_>
          4 22 3 1 2.</_></rects>
      <tilted>0</tilted></_>
    <_>
      <rects>
        <_>
          2 21 8 2 -1.</_>
        <_>
          6 21 4 2 2.</_></rects>
      <tilted>0</tilted></_>
    <_>
      <rects>
        <_>
          3 3 2 2 -1.</_>
        <_>
          3 3 1 1 2.</_>
        <_>
          4 4 1 1 2.</_></rects>
      <tilted>0</tilted></_>
    <_>
      <rects>
        <_>
          3 3 2 8 -1.</_>
        <_>
          4 3 1 8 2.</_></rects>
      <tilted>0</tilted></_>
    <_>
      <rects>
        <_>
          3 22 12 2 -1.</_>
        <_>
          3 23 12 1 2.</_></rects>
      <tilted>0</tilted></_>
    <_>
      <rects>
        <_>
          4 0 14 8 -1.</_>
        <_>
          4 0 7 4 2.</_>
        <_>
          11 4 7 4 2.</_></rects>
      <tilted>0</tilted></_>
    <_>
      <rects>
        <_>
          4 19 4 1 -1.</_>
        <_>
          6 19 2 1 2.</_></rects>
      <tilted>0</tilted></_>
    <_>
      <rects>
        <_>
          5 1 6 4 -1.</_>
        <_>
          5 1 3 2 2.</_>
        <_>
          8 3 3 2 2.</_></rects>
      <tilted>0</tilted></_>
    <_>
      <rects>
        <_>
          5 7 2 2 -1.</_>
        <_>
          5 7 1 1 2.</_>
        <_>
          6 8 1 1 2.</_></rects>
      <tilted>0</tilted></_>
    <_>
      <rects>
        <_>
          5 19 12 4 -1.</_>
        <_>
          5 19 6 2 2.</_>
        <_>
          11 21 6 2 2.</_></rects>
      <tilted>0</tilted></_>
    <_>
      <rects>
        <_>
          5 22 18 1 -1.</_>
        <_>
          11 22 6 1 2.</_></rects>
      <tilted>0</tilted></_>
    <_>
      <rects>
        <_>
          5 22 8 2 -1.</_>
        <_>
          5 23 8 1 2.</_></rects>
      <tilted>0</tilted></_>
    <_>
      <rects>
        <_>
          6 3 4 6 -1.</_>
        <_>
          6 3 2 3 2.</_>
        <_>
          8 6 2 3 2.</_></rects>
      <tilted>0</tilted></_>
    <_>
      <rects>
        <_>
          7 13 2 6 -1.</_>
        <_>
          8 13 1 6 2.</_></rects>
      <tilted>0</tilted></_>
    <_>
      <rects>
        <_>
          7 22 14 2 -1.</_>
        <_>
          7 22 7 1 2.</_>
        <_>
          14 23 7 1 2.</_></rects>
      <tilted>0</tilted></_>
    <_>
      <rects>
        <_>
          8 0 6 4 -1.</_>
        <_>
          8 0 3 2 2.</_>
        <_>
          11 2 3 2 2.</_></rects>
      <tilted>0</tilted></_>
    <_>
      <rects>
        <_>
          8 0 16 20 -1.</_>
        <_>
          8 0 8 10 2.</_>
        <_>
          16 10 8 10 2.</_></rects>
      <tilted>0</tilted></_>
    <_>
      <rects>
        <_>
          8 14 3 9 -1.</_>
        <_>
          9 14 1 9 2.</_></rects>
      <tilted>0</tilted></_>
    <_>
      <rects>
        <_>
          8 16 3 5 -1.</_>
        <_>
          9 16 1 5 2.</_></rects>
      <tilted>0</tilted></_>
    <_>
      <rects>
        <_>
          9 19 8 3 -1.</_>
        <_>
          13 19 4 3 2.</_></rects>
      <tilted>0</tilted></_>
    <_>
      <rects>
        <_>
          10 0 1 22 -1.</_>
        <_>
          10 11 1 11 2.</_></rects>
      <tilted>0</tilted></_>
    <_>
      <rects>
        <_>
          10 9 6 1 -1.</_>
        <_>
          12 9 2 1 2.</_></rects>
      <tilted>0</tilted></_>
    <_>
      <rects>
        <_>
          11 11 2 2 -1.</_>
        <_>
          11 11 1 1 2.</_>
        <_>
          12 12 1 1 2.</_></rects>
      <tilted>0</tilted></_>
    <_>
      <rects>
        <_>
          11 16 1 4 -1.</_>
        <_>
          11 18 1 2 2.</_></rects>
      <tilted>0</tilted></_>
    <_>
      <rects>
        <_>
          13 4 2 2 -1.</_>
        <_>
          13 4 1 1 2.</_>
        <_>
          14 5 1 1 2.</_></rects>
      <tilted>0</tilted></_>
    <_>
      <rects>
        <_>
          13 4 4 9 -1.</_>
        <_>
          15 4 2 9 2.</_></rects>
      <tilted>0</tilted></_>
    <_>
      <rects>
        <_>
          13 8 9 15 -1.</_>
        <_>
          16 8 3 15 2.</_></rects>
      <tilted>0</tilted></_>
    <_>
      <rects>
        <_>
          14 16 4 8 -1.</_>
        <_>
          14 16 2 4 2.</_>
        <_>
          16 20 2 4 2.</_></rects>
      <tilted>0</tilted></_>
    <_>
      <rects>
        <_>
          14 16 6 8 -1.</_>
        <_>
          14 16 3 4 2.</_>
        <_>
          17 20 3 4 2.</_></rects>
      <tilted>0</tilted></_>
    <_>
      <rects>
        <_>
          15 0 1 2 -1.</_>
        <_>
          15 1 1 1 2.</_></rects>
      <tilted>0</tilted></_>
    <_>
      <rects>
        <_>
          15 0 2 2 -1.</_>
        <_>
          15 1 2 1 2.</_></rects>
      <tilted>0</tilted></_>
    <_>
      <rects>
        <_>
          15 0 8 4 -1.</_>
        <_>
          15 0 4 2 2.</_>
        <_>
          19 2 4 2 2.</_></rects>
      <tilted>0</tilted></_>
    <_>
      <rects>
        <_>
          16 6 2 2 -1.</_>
        <_>
          16 6 1 1 2.</_>
        <_>
          17 7 1 1 2.</_></rects>
      <tilted>0</tilted></_>
    <_>
      <rects>
        <_>
          17 0 1 4 -1.</_>
        <_>
          17 2 1 2 2.</_></rects>
      <tilted>0</tilted></_>
    <_>
      <rects>
        <_>
          17 0 5 9 -1.</_>
        <_>
          17 3 5 3 2.</_></rects>
      <tilted>0</tilted></_>
    <_>
      <rects>
        <_>
          19 8 5 12 -1.</_>
        <_>
          19 12 5 4 2.</_></rects>
      <tilted>0</tilted></_></features></cascade>
</opencv_storage>
