<?xml version="1.0"?>
<opencv_storage>
<stage5>
  <maxWeakCount>7</maxWeakCount>
  <stageThreshold>-1.0161460191011429e-01</stageThreshold>
  <weakClassifiers>
    <_>
      <internalNodes>
        0 -1 8253 -2.0525461062788963e-02</internalNodes>
      <leafValues>
        8.4848487377166748e-01 -4.9122807383537292e-01</leafValues></_>
    <_>
      <internalNodes>
        0 -1 24769 -1.0179234668612480e-03</internalNodes>
      <leafValues>
        3.7573841214179993e-01 -7.7293592691421509e-01</leafValues></_>
    <_>
      <internalNodes>
        0 -1 106497 5.3645190782845020e-03</internalNodes>
      <leafValues>
        -7.0981085300445557e-01 3.8110539317131042e-01</leafValues></_>
    <_>
      <internalNodes>
        0 -1 40704 -3.0591792892664671e-04</internalNodes>
      <leafValues>
        -6.2105017900466919e-01 4.1664579510688782e-01</leafValues></_>
    <_>
      <internalNodes>
        0 -1 120569 3.6310375435277820e-04</internalNodes>
      <leafValues>
        3.4946164488792419e-01 -7.9416513442993164e-01</leafValues></_>
    <_>
      <internalNodes>
        0 -1 139483 6.6781602799892426e-03</internalNodes>
      <leafValues>
        -4.4194492697715759e-01 7.9393345117568970e-01</leafValues></_>
    <_>
      <internalNodes>
        0 -1 40673 -4.1616236558184028e-05</internalNodes>
      <leafValues>
        -6.9937151670455933e-01 4.5728147029876709e-01</leafValues></_></weakClassifiers></stage5>
</opencv_storage>
